<?xml version="1.0"?>
<opencv_storage>
<cascade>
  <stageType>BOOST</stageType>
  <featureType>LBP</featureType>
  <height>40</height>
  <width>80</width>
  <stageParams>
    <boostType>GAB</boostType>
    <minHitRate>9.9900001287460327e-01</minHitRate>
    <maxFalseAlarm>5.0000000000000000e-01</maxFalseAlarm>
    <weightTrimRate>9.4999999999999996e-01</weightTrimRate>
    <maxDepth>1</maxDepth>
    <maxWeakCount>100</maxWeakCount></stageParams>
  <featureParams>
    <maxCatCount>256</maxCatCount>
    <featSize>1</featSize></featureParams>
  <stageNum>20</stageNum>
  <stages>
    <!-- stage 0 -->
    <_>
      <maxWeakCount>5</maxWeakCount>
      <stageThreshold>-9.5484089851379395e-01</stageThreshold>
      <weakClassifiers>
        <_>
          <internalNodes>
            0 -1 10 -1 -1 -524289 -16385 1885685759 2136438775 861372287
            2004317047</internalNodes>
          <leafValues>
            -6.5289258956909180e-01 7.4330180883407593e-01</leafValues></_>
        <_>
          <internalNodes>
            0 -1 127 1067126783 2147426303 -581633 -57363 1068830655
            -1074127361 1069424127 1069025688</internalNodes>
          <leafValues>
            -7.1422833204269409e-01 5.7500296831130981e-01</leafValues></_>
        <_>
          <internalNodes>
            0 -1 125 -167774755 -572656131 -740311075 1442837877
            -1714701827 33115421 -1074808321 301717919</internalNodes>
          <leafValues>
            -5.9943217039108276e-01 6.0916668176651001e-01</leafValues></_>
        <_>
          <internalNodes>
            0 -1 25 -352354521 720011255 -285282307 -1158369364
            1685411703 1971191803 -302030985 -151552169</internalNodes>
          <leafValues>
            -5.5241280794143677e-01 5.7597857713699341e-01</leafValues></_>
        <_>
          <internalNodes>
            0 -1 102 -16089864 -10546096 2132481531 2071662616
            -1198851346 -68184067 431665854 1060844219</internalNodes>
          <leafValues>
            -7.1745526790618896e-01 4.3573352694511414e-01</leafValues></_></weakClassifiers></_>
    <!-- stage 1 -->
    <_>
      <maxWeakCount>8</maxWeakCount>
      <stageThreshold>-1.5915142297744751e+00</stageThreshold>
      <weakClassifiers>
        <_>
          <internalNodes>
            0 -1 3 -671678465 -1 -1 -1 -436154369 2138468215 1929508863
            2004318079</internalNodes>
          <leafValues>
            -5.3051912784576416e-01 7.2739404439926147e-01</leafValues></_>
        <_>
          <internalNodes>
            0 -1 14 -806357025 112979967 -36865 -17830930 1811375989
            -201850889 -34956 -524491</internalNodes>
          <leafValues>
            -5.0981914997100830e-01 6.6171437501907349e-01</leafValues></_>
        <_>
          <internalNodes>
            0 -1 142 -1615102467 2147319807 -1081697 -4243459
            -1354949185 -513 -1078280193 1069161977</internalNodes>
          <leafValues>
            -6.0595494508743286e-01 5.1280832290649414e-01</leafValues></_>
        <_>
          <internalNodes>
            0 -1 172 -44040875 368415771 -42076161 100136447 2050748927
            127784693 -71322693 283114879</internalNodes>
          <leafValues>
            -6.1217170953750610e-01 4.6753445267677307e-01</leafValues></_>
        <_>
          <internalNodes>
            0 -1 144 431054781 2139053949 -32769 -60947 1068400629
            -16897 788053502 984618080</internalNodes>
          <leafValues>
            -6.9617605209350586e-01 3.8723301887512207e-01</leafValues></_>
        <_>
          <internalNodes>
            0 -1 257 -758071096 1431388172 3145888 1394016331
            -1878865270 4260362 18014891 320536635</internalNodes>
          <leafValues>
            -6.3945752382278442e-01 4.1959646344184875e-01</leafValues></_>
        <_>
          <internalNodes>
            0 -1 24 -287312065 -957157641 -273903862 -1400444178
            2060932919 1945337831 -134234331 -252182925</internalNodes>
          <leafValues>
            -5.7868182659149170e-01 4.2452320456504822e-01</leafValues></_>
        <_>
          <internalNodes>
            0 -1 119 -795084712 -660907755 -8440361 1532843357
            -1978689286 -1166050357 453945503 990459353</internalNodes>
          <leafValues>
            -6.7625737190246582e-01 4.3385949730873108e-01</leafValues></_></weakClassifiers></_>
    <!-- stage 2 -->
    <_>
      <maxWeakCount>8</maxWeakCount>
      <stageThreshold>-1.3444007635116577e+00</stageThreshold>
      <weakClassifiers>
        <_>
          <internalNodes>
            0 -1 8 -1 -1048585 -536870945 -14680129 -1073745925
            -14680753 -679481361 2001803031</internalNodes>
          <leafValues>
            -4.1921275854110718e-01 6.8569970130920410e-01</leafValues></_>
        <_>
          <internalNodes>
            0 -1 68 -1048622 -33486 -545259522 -12633295 -1968527106
            -269 244025595 -4248645</internalNodes>
          <leafValues>
            -4.5451590418815613e-01 5.7823705673217773e-01</leafValues></_>
        <_>
          <internalNodes>
            0 -1 9 -1048713 -27791441 -252973569 -1225524509 -977306249
            -19400667 -573071 -33589385</internalNodes>
          <leafValues>
            -5.6364268064498901e-01 4.9924105405807495e-01</leafValues></_>
        <_>
          <internalNodes>
            0 -1 129 52365111 -36993 -4097 -4243538 937391487 -51201
            -1074302979 -5212239</internalNodes>
          <leafValues>
            -4.6593564748764038e-01 5.6353962421417236e-01</leafValues></_>
        <_>
          <internalNodes>
            0 -1 148 967841273 -163843 -1074061475 -3727873 -1162182657
            -67534851 1068400127 1068506552</internalNodes>
          <leafValues>
            -7.2288250923156738e-01 3.2167482376098633e-01</leafValues></_>
        <_>
          <internalNodes>
            0 -1 269 -716648248 1480785920 68161602 1363607753
            -1869963126 285212673 307405450 1393265035</internalNodes>
          <leafValues>
            -5.8686125278472900e-01 4.0942525863647461e-01</leafValues></_>
        <_>
          <internalNodes>
            0 -1 220 -1362102513 12576695 -4276672 -1427374450
            1744657703 1090387837 -319816396 -520093697</internalNodes>
          <leafValues>
            -4.4655403494834900e-01 5.0231814384460449e-01</leafValues></_>
        <_>
          <internalNodes>
            0 -1 134 -1078977168 -1207992964 -5996555 -4310156
            -1083638085 -8807 -1078809205 -1078325832</internalNodes>
          <leafValues>
            -6.6270762681961060e-01 3.6431238055229187e-01</leafValues></_></weakClassifiers></_>
    <!-- stage 3 -->
    <_>
      <maxWeakCount>9</maxWeakCount>
      <stageThreshold>-1.2287869453430176e+00</stageThreshold>
      <weakClassifiers>
        <_>
          <internalNodes>
            0 -1 185 -526849 33158041 -571478083 100662783 -38011457
            295559165 -541075969 301989887</internalNodes>
          <leafValues>
            -4.3968397378921509e-01 6.3569015264511108e-01</leafValues></_>
        <_>
          <internalNodes>
            0 -1 26 -1006637185 -956461121 -319823938 -56709409
            1733777271 1937056566 1458009975 2004350551</internalNodes>
          <leafValues>
            -7.4116057157516479e-01 3.6151507496833801e-01</leafValues></_>
        <_>
          <internalNodes>
            0 -1 122 2144804861 -61569 -9486421 2042306461 -1108492803
            -1074794497 -1078030851 1067976952</internalNodes>
          <leafValues>
            -6.3273590803146362e-01 3.6941611766815186e-01</leafValues></_>
        <_>
          <internalNodes>
            0 -1 95 -38076486 -7099592 -207563301 -4509901 -1109737750
            -406078657 -1431662914 -1078327110</internalNodes>
          <leafValues>
            -5.3858405351638794e-01 4.0919637680053711e-01</leafValues></_>
        <_>
          <internalNodes>
            0 -1 224 -1377320157 101906367 -1343934665 -1561985458
            968838259 805175103 -285800875 -201326733</internalNodes>
          <leafValues>
            -4.5007947087287903e-01 4.6489486098289490e-01</leafValues></_>
        <_>
          <internalNodes>
            0 -1 166 1043881373 -41121 -69633 -3178529 596787199
            -101367809 1035534299 1069155837</internalNodes>
          <leafValues>
            -6.1527335643768311e-01 3.4992927312850952e-01</leafValues></_>
        <_>
          <internalNodes>
            0 -1 89 578159839 788425589 -1094778881 779250615
            -1411915913 -9044481 -1947210251 -1879094019</internalNodes>
          <leafValues>
            -4.8890081048011780e-01 4.1660413146018982e-01</leafValues></_>
        <_>
          <internalNodes>
            0 -1 263 -779435816 -716764142 42054 1392574839 -1840086840
            16386 1343389871 51054827</internalNodes>
          <leafValues>
            -5.2937704324722290e-01 4.0547850728034973e-01</leafValues></_>
        <_>
          <internalNodes>
            0 -1 136 799474965 -4882561 -1084625025 -322724 780017533
            -16842759 536770025 1609574564</internalNodes>
          <leafValues>
            -5.9275400638580322e-01 3.3978772163391113e-01</leafValues></_></weakClassifiers></_>
    <!-- stage 4 -->
    <_>
      <maxWeakCount>10</maxWeakCount>
      <stageThreshold>-1.3521109819412231e+00</stageThreshold>
      <weakClassifiers>
        <_>
          <internalNodes>
            0 -1 28 -36993 -559233 -1051905 -4463050 2139060095 -8493257
            2147448831 2138523511</internalNodes>
          <leafValues>
            -4.6077784895896912e-01 6.0284566879272461e-01</leafValues></_>
        <_>
          <internalNodes>
            0 -1 62 -103814950 -793079590 -11331569 324210832
            -1414812930 -2137355542 -1924289573 195005371</internalNodes>
          <leafValues>
            -5.7001012563705444e-01 4.0078103542327881e-01</leafValues></_>
        <_>
          <internalNodes>
            0 -1 153 353654257 -74093259 -13762629 -166603 -101654786
            -4395523 -1540353 -4653580</internalNodes>
          <leafValues>
            -4.9256557226181030e-01 4.2793172597885132e-01</leafValues></_>
        <_>
          <internalNodes>
            0 -1 130 -537403393 -133313 2147220927 -1509381 1534959613
            -139531 1606213108 -71805520</internalNodes>
          <leafValues>
            -4.0387481451034546e-01 5.3648620843887329e-01</leafValues></_>
        <_>
          <internalNodes>
            0 -1 267 -653463352 -670892024 1187876 1359040524
            -2113349430 101189126 167952587 1393230767</internalNodes>
          <leafValues>
            -5.4732853174209595e-01 3.6567008495330811e-01</leafValues></_>
        <_>
          <internalNodes>
            0 -1 103 -1287699064 -9484529 2104811100 1901283153
            -1986024790 -815859105 316378623 -1617225281</internalNodes>
          <leafValues>
            -5.4709500074386597e-01 3.5770577192306519e-01</leafValues></_>
        <_>
          <internalNodes>
            0 -1 231 -276830233 653258687 -554700910 -1498436081
            -663783051 -1526729097 -731406044 -452985089</internalNodes>
          <leafValues>
            -3.7967193126678467e-01 5.5598890781402588e-01</leafValues></_>
        <_>
          <internalNodes>
            0 -1 132 -1081078406 -2523553 -375497217 2142465789
            -1143947267 -119472644 738115071 1060249081</internalNodes>
          <leafValues>
            -6.2156182527542114e-01 3.0231115221977234e-01</leafValues></_>
        <_>
          <internalNodes>
            0 -1 21 -318767241 -1602570450 -303301144 614379047
            1625251686 -689922441 1878477650 -210243977</internalNodes>
          <leafValues>
            -5.5547893047332764e-01 3.3582311868667603e-01</leafValues></_>
        <_>
          <internalNodes>
            0 -1 104 -1493301377 652111551 -566337569 -1710704906
            -1350666433 -1208059023 -139591821 -25929934</internalNodes>
          <leafValues>
            -4.2325079441070557e-01 4.4902098178863525e-01</leafValues></_></weakClassifiers></_>
    <!-- stage 5 -->
    <_>
      <maxWeakCount>12</maxWeakCount>
      <stageThreshold>-1.1991440057754517e+00</stageThreshold>
      <weakClassifiers>
        <_>
          <internalNodes>
            0 -1 2 -268438529 -65 -1077952513 -1048581 -402655761
            2012170103 1342167029 2004313333</internalNodes>
          <leafValues>
            -4.5215484499931335e-01 5.5279505252838135e-01</leafValues></_>
        <_>
          <internalNodes>
            0 -1 79 -1116814 -136887533 -1075790337 -75547853
            -1685673222 -34989 144608443 -4251717</internalNodes>
          <leafValues>
            -4.8275643587112427e-01 4.5243814587593079e-01</leafValues></_>
        <_>
          <internalNodes>
            0 -1 219 -1418725457 13594415 -10490010 581365662 -402786377
            81262559 -134742041 1090519039</internalNodes>
          <leafValues>
            -5.9101092815399170e-01 3.3725780248641968e-01</leafValues></_>
        <_>
          <internalNodes>
            0 -1 155 888741373 -2131043 -144711713 -174155 1058824185
            -65571 1065254909 1001391600</internalNodes>
          <leafValues>
            -6.3495552539825439e-01 3.0846881866455078e-01</leafValues></_>
        <_>
          <internalNodes>
            0 -1 151 909317397 -2129923 -3211268 -294977 -1660944899
            -75763756 -1073968259 1069030904</internalNodes>
          <leafValues>
            -6.0821199417114258e-01 2.6492014527320862e-01</leafValues></_>
        <_>
          <internalNodes>
            0 -1 45 -671125649 2139094847 950570751 -84935766 2013222783
            2142724983 2013213695 -151525545</internalNodes>
          <leafValues>
            -4.6419909596443176e-01 3.8540148735046387e-01</leafValues></_>
        <_>
          <internalNodes>
            0 -1 266 -785333112 -768540608 1612718192 -786890733
            -704478070 907677760 50874 322634443</internalNodes>
          <leafValues>
            -5.2687424421310425e-01 3.3856120705604553e-01</leafValues></_>
        <_>
          <internalNodes>
            0 -1 180 1035476316 -539000867 -1075941379 -1079227987
            -1665253697 -538996241 -1360344851 1067978205</internalNodes>
          <leafValues>
            -7.0763516426086426e-01 2.4610641598701477e-01</leafValues></_>
        <_>
          <internalNodes>
            0 -1 85 -1396830721 924333939 -403736114 688531029
            -1074393617 -100697853 -1075905073 -1162979361</internalNodes>
          <leafValues>
            -4.4664272665977478e-01 3.7484115362167358e-01</leafValues></_>
        <_>
          <internalNodes>
            0 -1 205 1172260663 787944319 -361922725 1916010479
            -2063792364 74972455 1741116501 1366392063</internalNodes>
          <leafValues>
            -5.7066601514816284e-01 2.9164949059486389e-01</leafValues></_>
        <_>
          <internalNodes>
            0 -1 223 -402654377 -914376773 -587338127 -523305533
            -270705407 -50510812 -50858212 -385949825</internalNodes>
          <leafValues>
            -3.3457726240158081e-01 5.0160998106002808e-01</leafValues></_>
        <_>
          <internalNodes>
            0 -1 83 -896662914 1903763510 2127040405 -2129059115
            105211900 -655329283 96829687 253363361</internalNodes>
          <leafValues>
            -6.9076287746429443e-01 2.4318009614944458e-01</leafValues></_></weakClassifiers></_>
    <!-- stage 6 -->
    <_>
      <maxWeakCount>12</maxWeakCount>
      <stageThreshold>-1.2092870473861694e+00</stageThreshold>
      <weakClassifiers>
        <_>
          <internalNodes>
            0 -1 4 -2359297 -2097153 -571539457 -313284705 -278858249
            -13208974 1466102719 1937205119</internalNodes>
          <leafValues>
            -4.0687283873558044e-01 5.5902880430221558e-01</leafValues></_>
        <_>
          <internalNodes>
            0 -1 186 -1344585731 -2130561 -1077969921 -2132993
            -1211200002 -1078508547 547887544 1069159600</internalNodes>
          <leafValues>
            -5.2732354402542114e-01 3.8591879606246948e-01</leafValues></_>
        <_>
          <internalNodes>
            0 -1 229 -9437329 620748279 -286265490 -1594950033
            2146956149 -452987402 -35923994 -991953281</internalNodes>
          <leafValues>
            -3.9961579442024231e-01 4.2458215355873108e-01</leafValues></_>
        <_>
          <internalNodes>
            0 -1 158 892360180 -113936395 -3702785 -67414529 -1212350979
            -69871619 -1078272513 1069028857</internalNodes>
          <leafValues>
            -6.3802778720855713e-01 2.7604258060455322e-01</leafValues></_>
        <_>
          <internalNodes>
            0 -1 41 -832569389 1782772630 1840802698 -388432918
            1189080948 1482478838 -588790204 -195561615</internalNodes>
          <leafValues>
            -5.3056240081787109e-01 3.1024402379989624e-01</leafValues></_>
        <_>
          <internalNodes>
            0 -1 65 -201854990 -10538239 466268630 -14336141 -1965060030
            -545450185 249535231 -541344769</internalNodes>
          <leafValues>
            -4.7374999523162842e-01 3.7680858373641968e-01</leafValues></_>
        <_>
          <internalNodes>
            0 -1 63 721297967 138020702 1832766975 975321606 -1141960881
            779361079 2145904353 -8978641</internalNodes>
          <leafValues>
            -4.6423596143722534e-01 3.3116602897644043e-01</leafValues></_>
        <_>
          <internalNodes>
            0 -1 157 -1113890888 -136358817 -536883753 -109546505
            -1380122886 -541052933 1023081983 2134382077</internalNodes>
          <leafValues>
            -5.2840179204940796e-01 2.9776468873023987e-01</leafValues></_>
        <_>
          <internalNodes>
            0 -1 237 -128925496 -704167936 8913048 1090732750
            -2104712542 1075382538 344248538 1359676555</internalNodes>
          <leafValues>
            -5.0851142406463623e-01 3.4539070725440979e-01</leafValues></_>
        <_>
          <internalNodes>
            0 -1 145 -1079747211 -43523 -70320675 -335782412 1069318136
            -42074116 1068249073 1001926932</internalNodes>
          <leafValues>
            -5.7685083150863647e-01 2.5826099514961243e-01</leafValues></_>
        <_>
          <internalNodes>
            0 -1 271 -251607864 -787275772 33558560 1896431648
            -165507944 573112321 268492987 319492763</internalNodes>
          <leafValues>
            -5.4391872882843018e-01 2.9925066232681274e-01</leafValues></_>
        <_>
          <internalNodes>
            0 -1 152 825236788 -3058179 -100671809 -11070227 893443071
            -360449537 -1111994372 1069161884</internalNodes>
          <leafValues>
            -7.5966548919677734e-01 2.0906288921833038e-01</leafValues></_></weakClassifiers></_>
    <!-- stage 7 -->
    <_>
      <maxWeakCount>12</maxWeakCount>
      <stageThreshold>-1.6115865707397461e+00</stageThreshold>
      <weakClassifiers>
        <_>
          <internalNodes>
            0 -1 125 -513 -572689163 2147220987 -973113867 -585113633
            150883737 -8390661 301979135</internalNodes>
          <leafValues>
            -3.1787675619125366e-01 5.6927031278610229e-01</leafValues></_>
        <_>
          <internalNodes>
            0 -1 80 -931201025 174993279 -50397185 -1440546817
            -268501121 -948607657 -1207961873 -9961617</internalNodes>
          <leafValues>
            -3.1937256455421448e-01 5.2008414268493652e-01</leafValues></_>
        <_>
          <internalNodes>
            0 -1 40 -134479873 -411117761 -67109313 -5047617 1444368191
            -420545545 2138992639 -561281</internalNodes>
          <leafValues>
            -3.4412986040115356e-01 4.9770015478134155e-01</leafValues></_>
        <_>
          <internalNodes>
            0 -1 105 -149713923 -540474793 -215528065 1060837241
            -1347109379 -67239947 167679481 1059587261</internalNodes>
          <leafValues>
            -5.1448529958724976e-01 3.2113420963287354e-01</leafValues></_>
        <_>
          <internalNodes>
            0 -1 100 687550239 753803069 -201376769 -1572673388
            -841530025 -1065113 -692381 -9274510</internalNodes>
          <leafValues>
            -4.3142709136009216e-01 3.2820138335227966e-01</leafValues></_>
        <_>
          <internalNodes>
            0 -1 242 -224339832 -787135472 2014367748 1361264773
            -964655478 83953984 1611170958 1368076491</internalNodes>
          <leafValues>
            -4.6070423722267151e-01 3.3319950103759766e-01</leafValues></_>
        <_>
          <internalNodes>
            0 -1 162 1035827061 -33720859 -541328009 -1630787 966057981
            -50462730 -1078397128 1068504564</internalNodes>
          <leafValues>
            -5.4686069488525391e-01 2.7007874846458435e-01</leafValues></_>
        <_>
          <internalNodes>
            0 -1 197 -405805277 24079347 -15098366 854972694 -186411771
            10971495 -415256303 1163919351</internalNodes>
          <leafValues>
            -5.9251421689987183e-01 2.6010450720787048e-01</leafValues></_>
        <_>
          <internalNodes>
            0 -1 114 -1616771854 -7390907 1979225343 2134446137
            -1959985169 -1549545100 464696741 523771069</internalNodes>
          <leafValues>
            -6.9492214918136597e-01 1.8666669726371765e-01</leafValues></_>
        <_>
          <internalNodes>
            0 -1 1 -1360592913 -1026822389 -322970908 -1495021653
            2087185748 -111680713 -302955260 -227019435</internalNodes>
          <leafValues>
            -5.6667834520339966e-01 2.6578506827354431e-01</leafValues></_>
        <_>
          <internalNodes>
            0 -1 178 60300780 -35553828 -139985091 -168725011 379936510
            -1247707236 -1897433620 934810764</internalNodes>
          <leafValues>
            -6.4799928665161133e-01 2.3086625337600708e-01</leafValues></_>
        <_>
          <internalNodes>
            0 -1 101 -1375269857 -1655507181 -1058333785 1059218202
            704609403 -220640504 -573088928 -327718860</internalNodes>
          <leafValues>
            -4.3186157941818237e-01 3.3457615971565247e-01</leafValues></_></weakClassifiers></_>
    <!-- stage 8 -->
    <_>
      <maxWeakCount>15</maxWeakCount>
      <stageThreshold>-1.2738486528396606e+00</stageThreshold>
      <weakClassifiers>
        <_>
          <internalNodes>
            0 -1 176 -1410334801 565968703 -34080841 -167772163
            -989856851 16776697 -973111151 16777183</internalNodes>
          <leafValues>
            -3.6089697480201721e-01 5.3114652633666992e-01</leafValues></_>
        <_>
          <internalNodes>
            0 -1 18 -68157473 -1029 -1903105 -8388737 -146345487
            -41982093 1433923807 -2129921</internalNodes>
          <leafValues>
            -3.2072553038597107e-01 5.1450866460800171e-01</leafValues></_>
        <_>
          <internalNodes>
            0 -1 115 777652479 -40026113 -1093312521 2142388191
            -167772167 -67379201 -1075996676 1067978228</internalNodes>
          <leafValues>
            -4.9417424201965332e-01 3.1611508131027222e-01</leafValues></_>
        <_>
          <internalNodes>
            0 -1 111 -1594947817 -1753258 792192958 -14992774 1155486847
            -1114018311 1860664831 -268811524</internalNodes>
          <leafValues>
            -3.8383492827415466e-01 3.8069805502891541e-01</leafValues></_>
        <_>
          <internalNodes>
            0 -1 61 -808524038 -134283118 1171275231 -75816366
            -1970353672 -67155340 193506552 -1928658790</internalNodes>
          <leafValues>
            -4.2664447426795959e-01 3.3850368857383728e-01</leafValues></_>
        <_>
          <internalNodes>
            0 -1 256 -543108920 -570358516 179344608 1898007665
            -1593644406 268959747 268619914 18555563</internalNodes>
          <leafValues>
            -5.3264290094375610e-01 2.6139342784881592e-01</leafValues></_>
        <_>
          <internalNodes>
            0 -1 195 -1398793092 -33857668 -322973699 -35331 -1735983425
            -1050371 1064103104 1069161725</internalNodes>
          <leafValues>
            -6.0246717929840088e-01 2.4985741078853607e-01</leafValues></_>
        <_>
          <internalNodes>
            0 -1 198 -1410336877 -1350565889 -420493025 -1295384609
            -100679916 -2047912591 -1182400 -1997808641</internalNodes>
          <leafValues>
            -3.9233055710792542e-01 3.7665298581123352e-01</leafValues></_>
        <_>
          <internalNodes>
            0 -1 31 -69220385 -1068598273 -322572466 -1060311890
            1985958727 1930914935 -175148361 -202899601</internalNodes>
          <leafValues>
            -4.8463013768196106e-01 3.0135297775268555e-01</leafValues></_>
        <_>
          <internalNodes>
            0 -1 59 -648161080 1381310481 318837109 1934959891
            -2146598258 551494367 83988215 932126143</internalNodes>
          <leafValues>
            -5.7765597105026245e-01 2.6545718312263489e-01</leafValues></_>
        <_>
          <internalNodes>
            0 -1 91 181276287 710285294 -1359582337 711081967
            -1503961217 1282627119 -1891438121 1332845939</internalNodes>
          <leafValues>
            -5.2264261245727539e-01 2.9215434193611145e-01</leafValues></_>
        <_>
          <internalNodes>
            0 -1 264 -204291880 -670670847 9556072 975911457 -938950264
            -985382352 1091747999 453197787</internalNodes>
          <leafValues>
            -4.9739706516265869e-01 2.6736256480216980e-01</leafValues></_>
        <_>
          <internalNodes>
            0 -1 121 -1084071977 -268485162 -81921 -80707995 -134251139
            -557061 -1082982404 -5214868</internalNodes>
          <leafValues>
            -3.6334598064422607e-01 4.3758422136306763e-01</leafValues></_>
        <_>
          <internalNodes>
            0 -1 169 -412098160 -774089345 -603459755 -168475363
            -1466123592 -190488948 627768239 522722619</internalNodes>
          <leafValues>
            -4.8204043507575989e-01 3.1581243872642517e-01</leafValues></_>
        <_>
          <internalNodes>
            0 -1 261 -16650808 -721221374 268654616 832521101
            -1759078008 -2004819199 67799550 1493932171</internalNodes>
          <leafValues>
            -4.0829586982727051e-01 3.7130507826805115e-01</leafValues></_></weakClassifiers></_>
    <!-- stage 9 -->
    <_>
      <maxWeakCount>14</maxWeakCount>
      <stageThreshold>-1.2717248201370239e+00</stageThreshold>
      <weakClassifiers>
        <_>
          <internalNodes>
            0 -1 39 -1867314897 671084029 2129653615 -69 1466906487
            1056931839 1744795646 -33554434</internalNodes>
          <leafValues>
            -2.2881563007831573e-01 6.3589268922805786e-01</leafValues></_>
        <_>
          <internalNodes>
            0 -1 96 -745540388 -86032048 -647405735 2067494416
            -2101706566 -337772577 235899054 -1086387526</internalNodes>
          <leafValues>
            -4.5243528485298157e-01 3.5925266146659851e-01</leafValues></_>
        <_>
          <internalNodes>
            0 -1 5 -597688325 -610535021 996470015 -4854849 -400033825
            -39231161 1801877397 2071422961</internalNodes>
          <leafValues>
            -5.4804801940917969e-01 2.7208340167999268e-01</leafValues></_>
        <_>
          <internalNodes>
            0 -1 171 364716021 -35356867 -345505793 -9539145 1034198015
            -992324 -1346572298 1051725172</internalNodes>
          <leafValues>
            -5.2317291498184204e-01 2.5236684083938599e-01</leafValues></_>
        <_>
          <internalNodes>
            0 -1 251 -653212472 -251194352 -2142240256 1364262913
            -1776631166 491401232 571117738 -1861807733</internalNodes>
          <leafValues>
            -4.1808238625526428e-01 3.7808719277381897e-01</leafValues></_>
        <_>
          <internalNodes>
            0 -1 204 -671619293 88596447 -24607374 1919413514 -207881333
            14667647 -6581499 1088421775</internalNodes>
          <leafValues>
            -5.1771450042724609e-01 2.5980016589164734e-01</leafValues></_>
        <_>
          <internalNodes>
            0 -1 133 253234260 -35833891 -90375251 -234497 -1090733060
            -1090658569 -1712547339 1049103868</internalNodes>
          <leafValues>
            -6.7259752750396729e-01 1.8123444914817810e-01</leafValues></_>
        <_>
          <internalNodes>
            0 -1 42 -486539329 -2102860050 -2131786980 147454558
            -614108585 6551842 -237535631 -145229241</internalNodes>
          <leafValues>
            -4.9684059619903564e-01 3.0196624994277954e-01</leafValues></_>
        <_>
          <internalNodes>
            0 -1 159 420503032 -55223299 1267694825 1577013725
            -1616356610 -1349597973 481492983 1069030653</internalNodes>
          <leafValues>
            -7.4092555046081543e-01 1.8507936596870422e-01</leafValues></_>
        <_>
          <internalNodes>
            0 -1 94 -2074148257 -73780202 -1611040038 -820900468
            2127519575 -36209629 -909816388 -182169054</internalNodes>
          <leafValues>
            -4.0421396493911743e-01 3.5215577483177185e-01</leafValues></_>
        <_>
          <internalNodes>
            0 -1 46 -652482878 1418207360 687865952 1635173382
            -2127386680 537526480 151683617 -951860833</internalNodes>
          <leafValues>
            -3.7299048900604248e-01 3.7402385473251343e-01</leafValues></_>
        <_>
          <internalNodes>
            0 -1 181 -1341178864 1711222067 1053723605 -797409809
            29393066 -841174596 395198453 993529339</internalNodes>
          <leafValues>
            -5.6247562170028687e-01 2.8271922469139099e-01</leafValues></_>
        <_>
          <internalNodes>
            0 -1 165 490145649 402601839 -1880165539 -143873292
            730102773 -25624722 -1652261567 1034436928</internalNodes>
          <leafValues>
            -5.4162889719009399e-01 2.3377190530300140e-01</leafValues></_>
        <_>
          <internalNodes>
            0 -1 245 -218066496 1904541711 439355432 1898382701
            -2013099326 1982007826 546474378 -1754595173</internalNodes>
          <leafValues>
            -4.1611462831497192e-01 3.6789569258689880e-01</leafValues></_></weakClassifiers></_>
    <!-- stage 10 -->
    <_>
      <maxWeakCount>15</maxWeakCount>
      <stageThreshold>-1.3282704353332520e+00</stageThreshold>
      <weakClassifiers>
        <_>
          <internalNodes>
            0 -1 19 -268701713 -68229233 -17301505 -814809665 1912567167
            1501262206 1996486119 2138535927</internalNodes>
          <leafValues>
            -3.6114421486854553e-01 4.8818558454513550e-01</leafValues></_>
        <_>
          <internalNodes>
            0 -1 74 -207621422 -2279661 2070417648 -75811542 -2001761551
            -1443922317 222004458 -282092549</internalNodes>
          <leafValues>
            -4.1139778494834900e-01 3.5839945077896118e-01</leafValues></_>
        <_>
          <internalNodes>
            0 -1 48 -838860833 -3016878 -1895264881 -78910515
            -1885746950 -220494672 -879785793 1941693131</internalNodes>
          <leafValues>
            -4.3579226732254028e-01 3.5449391603469849e-01</leafValues></_>
        <_>
          <internalNodes>
            0 -1 161 -1120576043 2146766708 -223355201 -2392075
            -41091106 -135475203 -1145504769 1065895380</internalNodes>
          <leafValues>
            -4.5866712927818298e-01 3.1453105807304382e-01</leafValues></_>
        <_>
          <internalNodes>
            0 -1 259 -788477816 -719124984 271056908 1899299141 17736922
            25757442 270711946 -1826940017</internalNodes>
          <leafValues>
            -4.0589722990989685e-01 3.3025184273719788e-01</leafValues></_>
        <_>
          <internalNodes>
            0 -1 207 268392209 1163886451 1992546293 -792166597
            -35652192 -712853669 93213776 437796703</internalNodes>
          <leafValues>
            -5.2054727077484131e-01 2.3667024075984955e-01</leafValues></_>
        <_>
          <internalNodes>
            0 -1 97 184503903 -27391011 -256647465 -521519132
            -1885341921 -9802250 -2057306892 228367604</internalNodes>
          <leafValues>
            -4.2679405212402344e-01 3.1914979219436646e-01</leafValues></_>
        <_>
          <internalNodes>
            0 -1 273 -240072504 -988738816 570433632 1359155211
            -2143239474 1632312960 539005323 288035035</internalNodes>
          <leafValues>
            -5.1949250698089600e-01 2.4870757758617401e-01</leafValues></_>
        <_>
          <internalNodes>
            0 -1 170 824204797 -245474344 -627572737 -14452867
            -1420017924 -4719236 -1346838787 1060243952</internalNodes>
          <leafValues>
            -5.4344862699508667e-01 2.6471963524818420e-01</leafValues></_>
        <_>
          <internalNodes>
            0 -1 0 -270533825 -458821681 211652510 -39665889 -839100442
            1186654815 -319461824 -454557865</internalNodes>
          <leafValues>
            -4.4305905699729919e-01 2.9278033971786499e-01</leafValues></_>
        <_>
          <internalNodes>
            0 -1 156 194457877 -1343392011 -1644597467 -77959187
            91431260 -4539521 1005737920 673188948</internalNodes>
          <leafValues>
            -5.5542290210723877e-01 2.5913071632385254e-01</leafValues></_>
        <_>
          <internalNodes>
            0 -1 72 -721433873 1659253695 -192283076 583929818 859832189
            1194425215 -739905117 1098102079</internalNodes>
          <leafValues>
            -5.3074204921722412e-01 2.4339251220226288e-01</leafValues></_>
        <_>
          <internalNodes>
            0 -1 52 -238825974 1074090304 1542120484 1342395392 34648195
            288377952 169908248 -684994549</internalNodes>
          <leafValues>
            -3.7824100255966187e-01 3.6345648765563965e-01</leafValues></_>
        <_>
          <internalNodes>
            0 -1 188 -1480774623 -134254003 1322229589 -631710177
            -1987973699 -1476544023 536825855 -232236711</internalNodes>
          <leafValues>
            -3.7512040138244629e-01 3.7079021334648132e-01</leafValues></_>
        <_>
          <internalNodes>
            0 -1 218 155008893 -1435140099 -1048649 -168919041 518735837
            -592842787 1555897717 -1912997852</internalNodes>
          <leafValues>
            -3.5046777129173279e-01 3.8719350099563599e-01</leafValues></_></weakClassifiers></_>
    <!-- stage 11 -->
    <_>
      <maxWeakCount>15</maxWeakCount>
      <stageThreshold>-1.4979714155197144e+00</stageThreshold>
      <weakClassifiers>
        <_>
          <internalNodes>
            0 -1 88 -532481 -8446170 255842259 923409170 -335675923
            -227371 398087412 170394772</internalNodes>
          <leafValues>
            -3.7630942463874817e-01 4.8931318521499634e-01</leafValues></_>
        <_>
          <internalNodes>
            0 -1 75 -4009230 -639413666 -88966702 -620613890 -1886682954
            -842121152 393607931 -1081953</internalNodes>
          <leafValues>
            -4.5651340484619141e-01 3.0898901820182800e-01</leafValues></_>
        <_>
          <internalNodes>
            0 -1 16 -3150041 547551583 -1610496498 -790112246 -456362219
            -1034909376 -941209040 -34111633</internalNodes>
          <leafValues>
            -4.7486889362335205e-01 3.1435087323188782e-01</leafValues></_>
        <_>
          <internalNodes>
            0 -1 183 836706271 945780711 -42532905 -1093042721
            -1077219331 -54161701 -1110115850 983568648</internalNodes>
          <leafValues>
            -5.1230311393737793e-01 2.2906285524368286e-01</leafValues></_>
        <_>
          <internalNodes>
            0 -1 228 -268442845 713041555 -1996367855 594409192
            -271322795 -376978425 1710220225 -1344274725</internalNodes>
          <leafValues>
            -3.8766193389892578e-01 3.3187747001647949e-01</leafValues></_>
        <_>
          <internalNodes>
            0 -1 150 268386141 -38567979 -805773345 -33591571
            -1677861091 -67327267 -539063092 1034952084</internalNodes>
          <leafValues>
            -4.7696003317832947e-01 2.7098572254180908e-01</leafValues></_>
        <_>
          <internalNodes>
            0 -1 240 -80553848 -956291072 16512 -793566652 281580168
            1078215438 273731755 1393237279</internalNodes>
          <leafValues>
            -5.1234674453735352e-01 2.3793815076351166e-01</leafValues></_>
        <_>
          <internalNodes>
            0 -1 216 1843353399 653219807 -168394761 -486614697
            334353717 68083517 -140835466 1929048971</internalNodes>
          <leafValues>
            -4.3902853131294250e-01 3.0892723798751831e-01</leafValues></_>
        <_>
          <internalNodes>
            0 -1 82 -586154082 -554936806 2131315743 218174736 235845774
            -1160912464 167969002 -1625618278</internalNodes>
          <leafValues>
            -4.4545668363571167e-01 2.6466214656829834e-01</leafValues></_>
        <_>
          <internalNodes>
            0 -1 249 -645348160 1342767108 1890591744 1381043760
            218203786 33898501 550421979 587926251</internalNodes>
          <leafValues>
            -5.0744819641113281e-01 2.3317678272724152e-01</leafValues></_>
        <_>
          <internalNodes>
            0 -1 189 905971856 -500227 1707998677 -46501907 -1174601736
            -100873229 1065009085 1035476408</internalNodes>
          <leafValues>
            -6.4978009462356567e-01 2.1197436749935150e-01</leafValues></_>
        <_>
          <internalNodes>
            0 -1 217 746532209 -1421901829 -134651411 -360829795
            702249781 -1900110729 1441493365 -647761415</internalNodes>
          <leafValues>
            -3.8911023736000061e-01 3.2415607571601868e-01</leafValues></_>
        <_>
          <internalNodes>
            0 -1 253 -642719608 1397430816 1111654720 1599276368
            -1475702646 -234354162 100710639 856131834</internalNodes>
          <leafValues>
            -4.1805264353752136e-01 3.0133828520774841e-01</leafValues></_>
        <_>
          <internalNodes>
            0 -1 146 622662965 -285909058 525172733 -84134914 1961630781
            -101155265 -185696428 951071744</internalNodes>
          <leafValues>
            -5.3874272108078003e-01 2.4368943274021149e-01</leafValues></_>
        <_>
          <internalNodes>
            0 -1 236 -888617752 -248167328 1379322278 -787807120
            -813003698 1091993281 110215355 -752631397</internalNodes>
          <leafValues>
            -3.4457439184188843e-01 3.9981287717819214e-01</leafValues></_></weakClassifiers></_>
    <!-- stage 12 -->
    <_>
      <maxWeakCount>16</maxWeakCount>
      <stageThreshold>-1.3894319534301758e+00</stageThreshold>
      <weakClassifiers>
        <_>
          <internalNodes>
            0 -1 27 -352360601 -344000641 -16847126 -1581453526
            1433888343 1178031991 1970761724 2053601279</internalNodes>
          <leafValues>
            -4.2585894465446472e-01 4.7228321433067322e-01</leafValues></_>
        <_>
          <internalNodes>
            0 -1 112 2011167837 -1142866067 -2102511777 1348128635
            -757604721 34778951 -303104498 406515199</internalNodes>
          <leafValues>
            -5.0284904241561890e-01 2.9165053367614746e-01</leafValues></_>
        <_>
          <internalNodes>
            0 -1 175 1026842109 -696331 -156573699 -426004 -1175265284
            -269161032 885178330 1069030864</internalNodes>
          <leafValues>
            -5.1538282632827759e-01 3.1110912561416626e-01</leafValues></_>
        <_>
          <internalNodes>
            0 -1 227 -186128569 1757847903 1146276390 -522788126
            1625645621 1141474807 -151160320 -452984841</internalNodes>
          <leafValues>
            -4.2930975556373596e-01 2.8740081191062927e-01</leafValues></_>
        <_>
          <internalNodes>
            0 -1 116 1910993136 -124311278 434360829 2100002623
            -1436568902 -365341928 511250872 -63987781</internalNodes>
          <leafValues>
            -4.0794989466667175e-01 3.1820452213287354e-01</leafValues></_>
        <_>
          <internalNodes>
            0 -1 194 -2019091693 -2053636161 -42246657 -1744831649
            -2131234819 -1929384465 -1929798484 -1979791232</internalNodes>
          <leafValues>
            -3.3061110973358154e-01 3.8176009058952332e-01</leafValues></_>
        <_>
          <internalNodes>
            0 -1 243 -750599992 -717137918 1665159192 1359434029
            -1450143606 290095300 269890443 320536603</internalNodes>
          <leafValues>
            -4.8324537277221680e-01 2.5278812646865845e-01</leafValues></_>
        <_>
          <internalNodes>
            0 -1 90 -4021742 -705727902 875746775 1839358583 -2019426334
            -823626429 222355642 532354265</internalNodes>
          <leafValues>
            -5.4439610242843628e-01 2.0983299612998962e-01</leafValues></_>
        <_>
          <internalNodes>
            0 -1 247 -607600440 -988200958 1409434184 1342244881
            -838171520 336150928 268846219 388178155</internalNodes>
          <leafValues>
            -4.9918389320373535e-01 2.5547131896018982e-01</leafValues></_>
        <_>
          <internalNodes>
            0 -1 190 674957652 -591832556 2077649149 -9480899 864005786
            -543431186 -1113264679 1059724717</internalNodes>
          <leafValues>
            -6.3239014148712158e-01 1.7981566488742828e-01</leafValues></_>
        <_>
          <internalNodes>
            0 -1 81 1751010175 784993887 -58394709 575830489 2130642813
            -832343433 -561736265 503577651</internalNodes>
          <leafValues>
            -4.3011820316314697e-01 2.8101137280464172e-01</leafValues></_>
        <_>
          <internalNodes>
            0 -1 17 -71116829 -1089622139 -2062509135 -2094907638
            1952575815 -600149693 1181796006 1802987487</internalNodes>
          <leafValues>
            -5.1722484827041626e-01 2.5442290306091309e-01</leafValues></_>
        <_>
          <internalNodes>
            0 -1 93 -1500313745 1018915679 -275853317 -261475585
            -34777778 -69456612 -548581782 -1089318029</internalNodes>
          <leafValues>
            -3.5953149199485779e-01 3.4425809979438782e-01</leafValues></_>
        <_>
          <internalNodes>
            0 -1 255 -89987960 2116616200 46420000 268570945 -1848606518
            1136656458 1208519006 285413790</internalNodes>
          <leafValues>
            -5.2112519741058350e-01 2.3800180852413177e-01</leafValues></_>
        <_>
          <internalNodes>
            0 -1 201 -348127449 720856887 -240652622 -499188054
            -843088604 41901661 366425444 1155071484</internalNodes>
          <leafValues>
            -5.6441092491149902e-01 2.3881629109382629e-01</leafValues></_>
        <_>
          <internalNodes>
            0 -1 49 -1035732346 -1073618750 1535238225 1680692361
            1075544770 1577115 34832582 1367851247</internalNodes>
          <leafValues>
            -3.4502473473548889e-01 3.5811477899551392e-01</leafValues></_></weakClassifiers></_>
    <!-- stage 13 -->
    <_>
      <maxWeakCount>17</maxWeakCount>
      <stageThreshold>-1.6102987527847290e+00</stageThreshold>
      <weakClassifiers>
        <_>
          <internalNodes>
            0 -1 131 481844696 -43531 -1077936641 2138775549 -1111916551
            -1074659332 523819967 1069161981</internalNodes>
          <leafValues>
            -4.2965060472488403e-01 4.6193444728851318e-01</leafValues></_>
        <_>
          <internalNodes>
            0 -1 47 -826606685 -1685848625 1269284995 -784678586
            -507052685 1103675908 -892911581 -202672281</internalNodes>
          <leafValues>
            -4.0572863817214966e-01 3.6208197474479675e-01</leafValues></_>
        <_>
          <internalNodes>
            0 -1 38 -6111269 -8421377 -1342314081 -536905729 125665134
            2147377071 2113400831 -138412049</internalNodes>
          <leafValues>
            -2.9821586608886719e-01 4.4418120384216309e-01</leafValues></_>
        <_>
          <internalNodes>
            0 -1 177 900011517 -9404417 -178913827 -5341187 -1127219714
            -17376001 -1208066051 1001920992</internalNodes>
          <leafValues>
            -5.0029826164245605e-01 2.5064611434936523e-01</leafValues></_>
        <_>
          <internalNodes>
            0 -1 203 -553130226 24631163 -1368329892 1173289667
            -767170739 81645109 -554734814 285208507</internalNodes>
          <leafValues>
            -5.1151543855667114e-01 2.4693898856639862e-01</leafValues></_>
        <_>
          <internalNodes>
            0 -1 106 611979007 1073364989 -292487201 987904509
            -1218480897 -43253987 -1094984449 -1074033155</internalNodes>
          <leafValues>
            -3.6660438776016235e-01 3.2922881841659546e-01</leafValues></_>
        <_>
          <internalNodes>
            0 -1 64 -61080050 -255982910 34672457 1360100624 -866792742
            776705 -649811633 455995343</internalNodes>
          <leafValues>
            -5.4042989015579224e-01 2.0603117346763611e-01</leafValues></_>
        <_>
          <internalNodes>
            0 -1 87 184430463 778450941 1727772223 16394526 -1075954865
            -813760905 -277875593 -1642941317</internalNodes>
          <leafValues>
            -4.0811580419540405e-01 2.8502592444419861e-01</leafValues></_>
        <_>
          <internalNodes>
            0 -1 23 -50599169 -740863034 -599768298 -40515038 1483817495
            1672696432 1381094208 2071422535</internalNodes>
          <leafValues>
            -6.0004204511642456e-01 2.0464952290058136e-01</leafValues></_>
        <_>
          <internalNodes>
            0 -1 154 1972458785 -270569007 -86593579 -85008 -1733493334
            -555686180 -21446664 1052270004</internalNodes>
          <leafValues>
            -4.9748763442039490e-01 2.2770607471466064e-01</leafValues></_>
        <_>
          <internalNodes>
            0 -1 241 -80686904 -771458944 351294528 1342642209 84067786
            17310726 338306138 1397424331</internalNodes>
          <leafValues>
            -4.9298533797264099e-01 2.6220321655273438e-01</leafValues></_>
        <_>
          <internalNodes>
            0 -1 174 564403708 -302678064 -309732105 -105819723
            -1127448615 -612860418 1065680378 1001921948</internalNodes>
          <leafValues>
            -6.1378115415573120e-01 2.1304105222225189e-01</leafValues></_>
        <_>
          <internalNodes>
            0 -1 250 -670702078 -1023326815 27674113 1535606855
            -1760557806 273900233 193470773 -1033379965</internalNodes>
          <leafValues>
            -3.4551280736923218e-01 3.7066662311553955e-01</leafValues></_>
        <_>
          <internalNodes>
            0 -1 57 -104670564 -237510160 1349009875 -1223054355
            -2122280556 -1696136160 125871493 186319037</internalNodes>
          <leafValues>
            -4.7941848635673523e-01 2.6534554362297058e-01</leafValues></_>
        <_>
          <internalNodes>
            0 -1 128 -1411639499 -883007524 -34275481 -1201521028
            -1076077196 -188948619 -1099539084 2138059056</internalNodes>
          <leafValues>
            -4.5774680376052856e-01 2.7078384160995483e-01</leafValues></_>
        <_>
          <internalNodes>
            0 -1 254 -710350208 -803131256 1132576896 151587844
            -2113895734 68684800 51045051 285413775</internalNodes>
          <leafValues>
            -4.8038348555564880e-01 2.6677918434143066e-01</leafValues></_>
        <_>
          <internalNodes>
            0 -1 210 -1352714959 -811110545 -34400642 -85985483
            637480049 -2076967607 872249652 -638583300</internalNodes>
          <leafValues>
            -3.6567130684852600e-01 3.5518783330917358e-01</leafValues></_></weakClassifiers></_>
    <!-- stage 14 -->
    <_>
      <maxWeakCount>15</maxWeakCount>
      <stageThreshold>-1.5483828783035278e+00</stageThreshold>
      <weakClassifiers>
        <_>
          <internalNodes>
            0 -1 12 -900727921 -992739370 -16592 -17109073 2113920839
            601161591 -404226284 -143131785</internalNodes>
          <leafValues>
            -3.0560472607612610e-01 5.7872343063354492e-01</leafValues></_>
        <_>
          <internalNodes>
            0 -1 34 -170000897 802327997 -64889346 -2582177 2114468655
            2142808476 -1698528273 -141972595</internalNodes>
          <leafValues>
            -3.4635850787162781e-01 3.9904108643531799e-01</leafValues></_>
        <_>
          <internalNodes>
            0 -1 135 -1449168624 -134250673 296932849 -212893985
            -1375765684 -1654674337 1743696033 -15028353</internalNodes>
          <leafValues>
            -4.2558389902114868e-01 3.4574317932128906e-01</leafValues></_>
        <_>
          <internalNodes>
            0 -1 29 -285212945 -455607681 -387194898 1156313146
            -151552157 586215167 -51383722 1995964343</internalNodes>
          <leafValues>
            -4.5505449175834656e-01 3.1492134928703308e-01</leafValues></_>
        <_>
          <internalNodes>
            0 -1 110 139329663 2055108575 -85664913 1045586815
            -522324107 -10190887 -1843975 968105213</internalNodes>
          <leafValues>
            -4.9977377057075500e-01 2.4470002949237823e-01</leafValues></_>
        <_>
          <internalNodes>
            0 -1 221 -276862169 -1321747545 1625131648 -1532298686
            2086610261 -458659977 -33628670 -522977670</internalNodes>
          <leafValues>
            -3.7670093774795532e-01 3.3968907594680786e-01</leafValues></_>
        <_>
          <internalNodes>
            0 -1 108 -1359077513 -1495909011 -3768449 -1737340594
            -1404543117 -1106280589 -1359220916 -298830574</internalNodes>
          <leafValues>
            -3.6677458882331848e-01 3.6687076091766357e-01</leafValues></_>
        <_>
          <internalNodes>
            0 -1 78 1601674235 -15806649 1579905527 302661267 -825520663
            -616319217 41813111 -88467977</internalNodes>
          <leafValues>
            -3.3418408036231995e-01 3.8453173637390137e-01</leafValues></_>
        <_>
          <internalNodes>
            0 -1 272 -665599998 1411448864 270021130 1430890642
            -1055719258 1342179972 280592386 1401417751</internalNodes>
          <leafValues>
            -3.8221615552902222e-01 3.3125376701354980e-01</leafValues></_>
        <_>
          <internalNodes>
            0 -1 209 769351459 -1410778189 -1474570 1981562303
            1039137765 -1998915587 498931028 439369209</internalNodes>
          <leafValues>
            -4.4212579727172852e-01 2.8566285967826843e-01</leafValues></_>
        <_>
          <internalNodes>
            0 -1 50 -741740069 -544168997 -1864291977 -82217957
            126719120 1897726392 1676657611 919131787</internalNodes>
          <leafValues>
            -4.5720526576042175e-01 2.6274958252906799e-01</leafValues></_>
        <_>
          <internalNodes>
            0 -1 99 678178559 679358159 -337584130 2139902 -1610657945
            -281262275 -1775763466 -9241121</internalNodes>
          <leafValues>
            -3.8437372446060181e-01 3.3787468075752258e-01</leafValues></_>
        <_>
          <internalNodes>
            0 -1 239 -70205304 -468838336 -1761606488 1363247474
            -1207770486 604684428 184606635 387915915</internalNodes>
          <leafValues>
            -4.3804991245269775e-01 2.9842755198478699e-01</leafValues></_>
        <_>
          <internalNodes>
            0 -1 208 637480823 -1364443201 -1380614795 -1183982061
            -1476459151 -985808922 -705163248 1295906896</internalNodes>
          <leafValues>
            -4.0922376513481140e-01 3.1198483705520630e-01</leafValues></_>
        <_>
          <internalNodes>
            0 -1 36 -655819264 -219639945 1747474944 285000187
            -851739326 1352911076 -1098028191 -441980101</internalNodes>
          <leafValues>
            -5.0964379310607910e-01 2.6538863778114319e-01</leafValues></_></weakClassifiers></_>
    <!-- stage 15 -->
    <_>
      <maxWeakCount>17</maxWeakCount>
      <stageThreshold>-1.1815835237503052e+00</stageThreshold>
      <weakClassifiers>
        <_>
          <internalNodes>
            0 -1 20 -1052725 -524099057 1084871782 -322965702 1635207746
            611536164 2007463424 1937205863</internalNodes>
          <leafValues>
            -4.9738219380378723e-01 4.5454546809196472e-01</leafValues></_>
        <_>
          <internalNodes>
            0 -1 37 -1209538641 2105014271 -285217153 -4194313
            2113761151 2080370671 2013265919 -1</internalNodes>
          <leafValues>
            -3.1381469964981079e-01 4.1034972667694092e-01</leafValues></_>
        <_>
          <internalNodes>
            0 -1 140 -53119491 -570731043 -900988939 -895491 -1649836065
            -84297249 -1958578199 1068504432</internalNodes>
          <leafValues>
            -5.0218546390533447e-01 2.5940272212028503e-01</leafValues></_>
        <_>
          <internalNodes>
            0 -1 147 -1160153099 -1044021273 -153757187 1564172149
            -1748445255 -68624556 997740734 523770168</internalNodes>
          <leafValues>
            -5.3593826293945313e-01 2.2341331839561462e-01</leafValues></_>
        <_>
          <internalNodes>
            0 -1 270 -652686136 -701278208 21696 1929582592 -1979547638
            2555936 68194447 320536731</internalNodes>
          <leafValues>
            -5.1341897249221802e-01 2.2654271125793457e-01</leafValues></_>
        <_>
          <internalNodes>
            0 -1 113 12979420 1374952944 -98780295 -1074589729
            -1141321735 -7602225 -1646750503 498601189</internalNodes>
          <leafValues>
            -6.2167382240295410e-01 1.8015868961811066e-01</leafValues></_>
        <_>
          <internalNodes>
            0 -1 232 -402669049 782492459 457394510 717749050 -439399355
            306465093 1978479457 -856688649</internalNodes>
          <leafValues>
            -3.8771298527717590e-01 2.8860574960708618e-01</leafValues></_>
        <_>
          <internalNodes>
            0 -1 192 -1208265379 -537103103 1032971765 -753846627
            -1176519176 -2026034815 95093944 -1645275751</internalNodes>
          <leafValues>
            -3.5238188505172729e-01 3.1872132420539856e-01</leafValues></_>
        <_>
          <internalNodes>
            0 -1 233 -685713216 1934820736 139272 1459687472 -2145201504
            1073897796 268472394 302710923</internalNodes>
          <leafValues>
            -4.5451945066452026e-01 2.4119836091995239e-01</leafValues></_>
        <_>
          <internalNodes>
            0 -1 196 1007945076 -212058267 -321913892 -27449475
            -1714503713 -21906097 -1081336483 1052249276</internalNodes>
          <leafValues>
            -6.3207322359085083e-01 1.7045141756534576e-01</leafValues></_>
        <_>
          <internalNodes>
            0 -1 244 -754663288 1971544064 -2112860064 1497170309
            -1844538170 61941346 849379487 -752631377</internalNodes>
          <leafValues>
            -3.5658809542655945e-01 3.1961324810981750e-01</leafValues></_>
        <_>
          <internalNodes>
            0 -1 92 -889245857 721039038 -222920705 -1573227588
            -270631137 -950855881 -1988120757 -277840877</internalNodes>
          <leafValues>
            -3.3919042348861694e-01 3.6204257607460022e-01</leafValues></_>
        <_>
          <internalNodes>
            0 -1 30 -741358398 -528228248 449070138 -519714720
            -780102880 547398656 453559306 1367853583</internalNodes>
          <leafValues>
            -4.0383800864219666e-01 2.9238688945770264e-01</leafValues></_>
        <_>
          <internalNodes>
            0 -1 193 839130581 928528381 -181516849 -2871819 -2090795559
            -692209745 -1094910215 665860044</internalNodes>
          <leafValues>
            -5.1998400688171387e-01 2.2001177072525024e-01</leafValues></_>
        <_>
          <internalNodes>
            0 -1 252 -799947572 -750972408 308281728 1091637632
            -1150106385 935472 -1270946594 -1145339525</internalNodes>
          <leafValues>
            -3.1859189271926880e-01 3.8096606731414795e-01</leafValues></_>
        <_>
          <internalNodes>
            0 -1 214 -1390446813 802025343 -625682164 -496320657
            1973548581 1180088594 -742254848 27979691</internalNodes>
          <leafValues>
            -5.2391165494918823e-01 2.2476409375667572e-01</leafValues></_>
        <_>
          <internalNodes>
            0 -1 6 -2019565697 -1076889715 -1894965421 -1079274680
            400256885 -71964249 370056884 1990706468</internalNodes>
          <leafValues>
            -5.0000596046447754e-01 2.3164437711238861e-01</leafValues></_></weakClassifiers></_>
    <!-- stage 16 -->
    <_>
      <maxWeakCount>17</maxWeakCount>
      <stageThreshold>-1.5712829828262329e+00</stageThreshold>
      <weakClassifiers>
        <_>
          <internalNodes>
            0 -1 13 -1 -8388677 -269487369 -277872846 -245898512
            -143167183 1904157695 -8421601</internalNodes>
          <leafValues>
            -1.3877755403518677e-01 5.5446624755859375e-01</leafValues></_>
        <_>
          <internalNodes>
            0 -1 120 208930012 -6456321 -16845825 2130587615 -1073807393
            -2360353 -1090659841 1073224925</internalNodes>
          <leafValues>
            -5.1740950345993042e-01 2.6409873366355896e-01</leafValues></_>
        <_>
          <internalNodes>
            0 -1 226 -15953 -1510605017 -134235290 1001123693 -872988459
            -471351947 -878195140 -1342177445</internalNodes>
          <leafValues>
            -3.0997470021247864e-01 4.0178501605987549e-01</leafValues></_>
        <_>
          <internalNodes>
            0 -1 53 -889198929 -1898987574 -1930598496 -403398682
            -674771025 1784734515 -271206523 -103284745</internalNodes>
          <leafValues>
            -2.5493460893630981e-01 4.4325089454650879e-01</leafValues></_>
        <_>
          <internalNodes>
            0 -1 67 1627343567 -1362211025 -1090957394 -386106466
            1607415679 1140825917 -172046858 1429469253</internalNodes>
          <leafValues>
            -6.0970491170883179e-01 1.7696462571620941e-01</leafValues></_>
        <_>
          <internalNodes>
            0 -1 137 968445976 -1109762725 -677716143 1499287887
            270035146 -272400913 278592255 456792287</internalNodes>
          <leafValues>
            -6.4724850654602051e-01 1.5914046764373779e-01</leafValues></_>
        <_>
          <internalNodes>
            0 -1 262 -660811576 -787677184 33566944 1359024141
            -192245624 1376258 34900410 286982363</internalNodes>
          <leafValues>
            -4.6525266766548157e-01 2.5849020481109619e-01</leafValues></_>
        <_>
          <internalNodes>
            0 -1 123 -1611711113 -3249249 -182976527 -78623301
            2077644287 -24323378 1607148536 -13469952</internalNodes>
          <leafValues>
            -3.6180341243743896e-01 3.2805404067039490e-01</leafValues></_>
        <_>
          <internalNodes>
            0 -1 71 576597583 46280614 975105646 850149064 712996404
            -1490665932 -2085752476 89244900</internalNodes>
          <leafValues>
            -5.6265187263488770e-01 1.8041354417800903e-01</leafValues></_>
        <_>
          <internalNodes>
            0 -1 215 -1442896093 246654895 -1649494042 -496023129
            855598405 39844207 1709658912 1098119259</internalNodes>
          <leafValues>
            -5.5432808399200439e-01 1.8602184951305389e-01</leafValues></_>
        <_>
          <internalNodes>
            0 -1 246 -575617632 -301662208 1092621184 1359020035
            -1845455704 1441802 1342345866 318963743</internalNodes>
          <leafValues>
            -4.5500701665878296e-01 2.3922546207904816e-01</leafValues></_>
        <_>
          <internalNodes>
            0 -1 168 890312117 -14845063 -1613915651 -33733699
            1033436573 -6758892 1039056380 1052249296</internalNodes>
          <leafValues>
            -5.0643527507781982e-01 2.2287620604038239e-01</leafValues></_>
        <_>
          <internalNodes>
            0 -1 32 -622859001 -543435987 -572341368 -1664458470
            1603747591 1788737715 -459441550 -112726314</internalNodes>
          <leafValues>
            -4.6115484833717346e-01 2.3565170168876648e-01</leafValues></_>
        <_>
          <internalNodes>
            0 -1 187 -572026317 -176325643 -92310604 -798474561
            -1359364673 -1946184195 -1124450817 -80069831</internalNodes>
          <leafValues>
            -3.0217671394348145e-01 3.7216600775718689e-01</leafValues></_>
        <_>
          <internalNodes>
            0 -1 60 -36702642 -548305684 1563741003 537415680 -884431686
            -2132766046 -1814848325 2726570</internalNodes>
          <leafValues>
            -5.8117014169692993e-01 2.1042345464229584e-01</leafValues></_>
        <_>
          <internalNodes>
            0 -1 191 158335269 -170623619 -51479075 -34190588
            -1212374049 -189498887 -537348252 355992864</internalNodes>
          <leafValues>
            -5.5699235200881958e-01 1.9842271506786346e-01</leafValues></_>
        <_>
          <internalNodes>
            0 -1 69 -101039524 -372169183 -786335435 276635765
            -485693483 -761203743 184729310 -1612997159</internalNodes>
          <leafValues>
            -3.4440281987190247e-01 3.3970651030540466e-01</leafValues></_></weakClassifiers></_>
    <!-- stage 17 -->
    <_>
      <maxWeakCount>19</maxWeakCount>
      <stageThreshold>-1.1644008159637451e+00</stageThreshold>
      <weakClassifiers>
        <_>
          <internalNodes>
            0 -1 126 -71968771 -6787118 1065287167 2134079485
            -1372799327 -566822928 488431359 523902365</internalNodes>
          <leafValues>
            -2.3061430454254150e-01 4.8872873187065125e-01</leafValues></_>
        <_>
          <internalNodes>
            0 -1 163 -1409300555 154138589 -547524755 1968308041
            -1712939873 -1997562155 635425817 149941723</internalNodes>
          <leafValues>
            -4.0020436048507690e-01 2.9321783781051636e-01</leafValues></_>
        <_>
          <internalNodes>
            0 -1 199 -642837199 -805348481 -35956235 -33850993
            -1716408392 -236795953 199513508 456802235</internalNodes>
          <leafValues>
            -4.2085200548171997e-01 2.6383689045906067e-01</leafValues></_>
        <_>
          <internalNodes>
            0 -1 11 -544225281 -204615487 574986372 -979664639
            1853079788 2085043272 1378320619 1930392203</internalNodes>
          <leafValues>
            -4.4267964363098145e-01 2.5505512952804565e-01</leafValues></_>
        <_>
          <internalNodes>
            0 -1 70 -572621614 -681625378 1510137311 -69063434
            -1961516954 -649861020 84252507 -8933685</internalNodes>
          <leafValues>
            -3.9448741078376770e-01 2.8136223554611206e-01</leafValues></_>
        <_>
          <internalNodes>
            0 -1 118 -1362935977 -593945 -67109377 -1175421544 -1933699
            -364577 -143253712 -282035886</internalNodes>
          <leafValues>
            -3.1986659765243530e-01 3.0735886096954346e-01</leafValues></_>
        <_>
          <internalNodes>
            0 -1 260 -741292864 -740620278 1097892 1347507557
            -1943347062 35127306 -1845304694 318965903</internalNodes>
          <leafValues>
            -4.3193116784095764e-01 2.2697822749614716e-01</leafValues></_>
        <_>
          <internalNodes>
            0 -1 160 318768404 -204374055 -100729137 -69304835
            -1218838532 -102410275 -1192989286 1068502136</internalNodes>
          <leafValues>
            -6.8286734819412231e-01 1.3238884508609772e-01</leafValues></_>
        <_>
          <internalNodes>
            0 -1 225 -850935296 -674800363 -837446851 506175706
            -259242220 -912569887 -502550177 -1434454567</internalNodes>
          <leafValues>
            -3.3008414506912231e-01 3.0427420139312744e-01</leafValues></_>
        <_>
          <internalNodes>
            0 -1 234 -754388024 -1805549440 352473735 -783609495
            -1499424632 807770378 325131403 -682030993</internalNodes>
          <leafValues>
            -3.4273430705070496e-01 3.0129796266555786e-01</leafValues></_>
        <_>
          <internalNodes>
            0 -1 84 11405551 -1429860418 -326769227 854605686 783122303
            1845459835 -1882196556 176194736</internalNodes>
          <leafValues>
            -4.8850247263908386e-01 2.4328145384788513e-01</leafValues></_>
        <_>
          <internalNodes>
            0 -1 167 395927033 -30335120 -309635153 -74709107 -50561850
            -1622279937 -391315523 -1409794567</internalNodes>
          <leafValues>
            -3.4209170937538147e-01 2.9496639966964722e-01</leafValues></_>
        <_>
          <internalNodes>
            0 -1 22 -1308630002 1585988384 -2029705040 949789251
            -1066511868 -1543143413 2026005072 -1070243025</internalNodes>
          <leafValues>
            -5.3996610641479492e-01 1.9374936819076538e-01</leafValues></_>
        <_>
          <internalNodes>
            0 -1 184 -1396807664 -136640299 -2142307643 -42842669
            -1138964552 -244412969 -1162283013 1060637183</internalNodes>
          <leafValues>
            -5.0509721040725708e-01 2.0593293011188507e-01</leafValues></_>
        <_>
          <internalNodes>
            0 -1 269 -748633912 1413680256 571999264 628378673
            -1803382200 295960642 100036814 320014827</internalNodes>
          <leafValues>
            -5.1954263448715210e-01 2.1624101698398590e-01</leafValues></_>
        <_>
          <internalNodes>
            0 -1 141 191628669 1623027703 -16692 -9682956 1062174069
            -134912132 -1170178060 968381776</internalNodes>
          <leafValues>
            -4.7156265377998352e-01 2.3370042443275452e-01</leafValues></_>
        <_>
          <internalNodes>
            0 -1 35 -980683640 -1035960092 443106322 1539909937
            -1509888230 -2080339660 -1810792041 -786443521</internalNodes>
          <leafValues>
            -3.3278921246528625e-01 3.2683783769607544e-01</leafValues></_>
        <_>
          <internalNodes>
            0 -1 206 663699217 -1549894885 -41822904 -270672033
            179110948 -1944448723 227351728 -2004146624</internalNodes>
          <leafValues>
            -4.3069362640380859e-01 2.5395366549491882e-01</leafValues></_>
        <_>
          <internalNodes>
            0 -1 213 665845555 249523311 -1145053792 -1426854360
            493844263 1165885055 1219919728 1614997466</internalNodes>
          <leafValues>
            -4.8577684164047241e-01 2.2229884564876556e-01</leafValues></_></weakClassifiers></_>
    <!-- stage 18 -->
    <_>
      <maxWeakCount>20</maxWeakCount>
      <stageThreshold>-1.4789781570434570e+00</stageThreshold>
      <weakClassifiers>
        <_>
          <internalNodes>
            0 -1 173 -541065281 364852667 -272892483 1170077118
            -42035810 486610288 2059393690 837800303</internalNodes>
          <leafValues>
            -2.8244274854660034e-01 4.7093021869659424e-01</leafValues></_>
        <_>
          <internalNodes>
            0 -1 139 420999640 -550565040 355176925 1432378247
            -1124623974 -62177398 515182776 503144328</internalNodes>
          <leafValues>
            -4.3623086810112000e-01 2.6044425368309021e-01</leafValues></_>
        <_>
          <internalNodes>
            0 -1 15 -380711441 -1223356201 -1853677602 -540054689
            -548510594 2088384639 -1014176269 2137219751</internalNodes>
          <leafValues>
            -4.4610083103179932e-01 2.3406857252120972e-01</leafValues></_>
        <_>
          <internalNodes>
            0 -1 200 859254563 -1367638017 -1082396880 -224759845
            -308323003 125566271 -671369388 1346022123</internalNodes>
          <leafValues>
            -4.7079336643218994e-01 2.1607156097888947e-01</leafValues></_>
        <_>
          <internalNodes>
            0 -1 33 -864033033 -775573062 -1912428873 -259225120
            1615160149 2137484087 1955312107 -219880921</internalNodes>
          <leafValues>
            -4.2910930514335632e-01 2.2367785871028900e-01</leafValues></_>
        <_>
          <internalNodes>
            0 -1 211 1596395781 1136099159 -351451689 -90605793
            2030998869 -1649882417 1599867205 -1120239845</internalNodes>
          <leafValues>
            -3.2024401426315308e-01 3.2118442654609680e-01</leafValues></_>
        <_>
          <internalNodes>
            0 -1 248 -752297848 -259981272 7885028 3080209 771850650
            906111808 606340266 285409451</internalNodes>
          <leafValues>
            -5.2308285236358643e-01 1.7548388242721558e-01</leafValues></_>
        <_>
          <internalNodes>
            0 -1 143 234634709 -142639137 -6744585 -21350675 -542312975
            -1546295299 -1210100236 431492564</internalNodes>
          <leafValues>
            -4.7648563981056213e-01 2.4739699065685272e-01</leafValues></_>
        <_>
          <internalNodes>
            0 -1 222 1541881623 2044196671 1554935661 -220528818
            -446715883 2104974415 -890405120 -185141381</internalNodes>
          <leafValues>
            -3.1232711672782898e-01 3.3716896176338196e-01</leafValues></_>
        <_>
          <internalNodes>
            0 -1 107 -1616492970 -173059998 -192355074 1935278142
            -1381239213 -1614106126 68211675 -1613095526</internalNodes>
          <leafValues>
            -4.6752661466598511e-01 2.2324186563491821e-01</leafValues></_>
        <_>
          <internalNodes>
            0 -1 109 -313189899 -177458287 1560493813 1934106407
            -1422942283 -283152932 254563505 -1304947467</internalNodes>
          <leafValues>
            -3.7190237641334534e-01 2.7283635735511780e-01</leafValues></_>
        <_>
          <internalNodes>
            0 -1 238 -620719928 -246869952 268571136 1359692260
            -1004500830 -2110062070 269652616 856373818</internalNodes>
          <leafValues>
            -4.0179008245468140e-01 2.6657292246818542e-01</leafValues></_>
        <_>
          <internalNodes>
            0 -1 164 569654869 -53008513 -36225026 2113691624 154410109
            -537210948 1056106420 1009261012</internalNodes>
          <leafValues>
            -5.2663552761077881e-01 1.9176557660102844e-01</leafValues></_>
        <_>
          <internalNodes>
            0 -1 258 -787822376 -597228490 -1606014400 -81926987
            -1960276887 338894412 -493698901 -683462869</internalNodes>
          <leafValues>
            -3.2398802042007446e-01 3.2817408442497253e-01</leafValues></_>
        <_>
          <internalNodes>
            0 -1 117 -1396738249 -1477935849 989751646 1617493926
            518993234 -279204483 1609713200 -61686766</internalNodes>
          <leafValues>
            -3.5826388001441956e-01 3.0961644649505615e-01</leafValues></_>
        <_>
          <internalNodes>
            0 -1 43 -807407633 -488650616 -935215450 -358121241
            1079321711 553789719 1654841842 1950840963</internalNodes>
          <leafValues>
            -4.7785359621047974e-01 2.2164076566696167e-01</leafValues></_>
        <_>
          <internalNodes>
            0 -1 98 236258999 -2099364599 -21078305 1244554992 896745309
            1966261094 -1343491081 536349180</internalNodes>
          <leafValues>
            -4.5700752735137939e-01 2.2437879443168640e-01</leafValues></_>
        <_>
          <internalNodes>
            0 -1 265 -687814528 1351813128 808080450 1343685792
            -1166881622 75957936 12845194 293278859</internalNodes>
          <leafValues>
            -4.7988736629486084e-01 2.1726776659488678e-01</leafValues></_>
        <_>
          <internalNodes>
            0 -1 182 750011644 -1081059492 -350427508 -1766043044
            -1785030165 -8898577 -1677796167 1066439160</internalNodes>
          <leafValues>
            -5.3750777244567871e-01 1.9885961711406708e-01</leafValues></_>
        <_>
          <internalNodes>
            0 -1 58 -598352051 -2295342 1560887309 -645023399
            -2130399030 280277584 -587165781 664505515</internalNodes>
          <leafValues>
            -3.8340711593627930e-01 2.9276236891746521e-01</leafValues></_></weakClassifiers></_>
    <!-- stage 19 -->
    <_>
      <maxWeakCount>20</maxWeakCount>
      <stageThreshold>-1.4468467235565186e+00</stageThreshold>
      <weakClassifiers>
        <_>
          <internalNodes>
            0 -1 7 -2662405 -954405 -1074057477 -1058099 -310379019
            -757900 -8396859 1966359877</internalNodes>
          <leafValues>
            -3.2565352320671082e-01 4.4663813710212708e-01</leafValues></_>
        <_>
          <internalNodes>
            0 -1 73 -227347841 2079472499 -365236249 -918558091
            -1283989505 -786433 -1897406466 -1883255301</internalNodes>
          <leafValues>
            -2.1992199122905731e-01 4.8627576231956482e-01</leafValues></_>
        <_>
          <internalNodes>
            0 -1 149 -1787207843 -608338967 -741476898 2134578811
            -1881604100 -37299811 266488056 523902136</internalNodes>
          <leafValues>
            -4.6404868364334106e-01 2.3252274096012115e-01</leafValues></_>
        <_>
          <internalNodes>
            0 -1 230 -604509329 -1929910313 -1408568754 -1595414665
            1633634404 1082871255 -288907160 -857214346</internalNodes>
          <leafValues>
            -3.4940591454505920e-01 3.0693468451499939e-01</leafValues></_>
        <_>
          <internalNodes>
            0 -1 179 363863196 -302753348 -469964835 -21464068 -67568129
            -269680657 -1888028449 -1078454788</internalNodes>
          <leafValues>
            -4.9373567104339600e-01 1.7107586562633514e-01</leafValues></_>
        <_>
          <internalNodes>
            0 -1 268 -58664728 2013855744 3414144 287768577 9996432
            537399808 712858 285933771</internalNodes>
          <leafValues>
            -4.9966862797737122e-01 2.1456205844879150e-01</leafValues></_>
        <_>
          <internalNodes>
            0 -1 76 1862232847 1651629535 -1561101106 -1430358857
            1710978927 1194654476 -191109772 1471074392</internalNodes>
          <leafValues>
            -4.8724555969238281e-01 2.0494957268238068e-01</leafValues></_>
        <_>
          <internalNodes>
            0 -1 55 -236463649 1317000822 1014562560 -277612034
            -154009842 -1754267662 -850076047 -908104081</internalNodes>
          <leafValues>
            -2.4123579263687134e-01 4.3789812922477722e-01</leafValues></_>
        <_>
          <internalNodes>
            0 -1 51 -599339777 -144863133 -1408454945 -12810230
            1927571249 1065371701 181351663 -97337801</internalNodes>
          <leafValues>
            -3.9905086159706116e-01 2.3845519125461578e-01</leafValues></_>
        <_>
          <internalNodes>
            0 -1 124 250547575 -825297441 -1092635163 -423727300
            -657637515 -169808834 -54231184 -18842016</internalNodes>
          <leafValues>
            -3.0995070934295654e-01 3.1635180115699768e-01</leafValues></_>
        <_>
          <internalNodes>
            0 -1 235 -182401856 2038913154 1615352082 1376338485
            -1608322166 35675906 206356751 -1861549381</internalNodes>
          <leafValues>
            -3.4771049022674561e-01 2.8080853819847107e-01</leafValues></_>
        <_>
          <internalNodes>
            0 -1 138 1005805543 -1347428369 2025289379 1651653490
            -218202754 -1961296069 -2063867696 1383119304</internalNodes>
          <leafValues>
            -4.2765071988105774e-01 2.4409863352775574e-01</leafValues></_>
        <_>
          <internalNodes>
            0 -1 202 1158087681 1096111895 1216463005 -181945413
            1216687680 377402247 -554927265 960118587</internalNodes>
          <leafValues>
            -4.1496193408966064e-01 2.4903479218482971e-01</leafValues></_>
        <_>
          <internalNodes>
            0 -1 56 -1924272168 -619871973 1073742281 -1651408495
            -955718931 862863568 -1186101221 396210911</internalNodes>
          <leafValues>
            -4.6000412106513977e-01 2.1710608899593353e-01</leafValues></_>
        <_>
          <internalNodes>
            0 -1 66 -633988129 -1167973762 -17661969 571629226
            -1422458964 -1144456610 181927898 -77215717</internalNodes>
          <leafValues>
            -2.9466655850410461e-01 3.6134022474288940e-01</leafValues></_>
        <_>
          <internalNodes>
            0 -1 44 -481633390 1426230528 -1052332224 -2142289864
            1079118144 1101269080 1308838432 1158533163</internalNodes>
          <leafValues>
            -4.3367332220077515e-01 2.5145718455314636e-01</leafValues></_>
        <_>
          <internalNodes>
            0 -1 212 232728355 -506822675 -319923350 -499482973
            -1677830299 1257627412 -1527790064 1613246388</internalNodes>
          <leafValues>
            -4.6822318434715271e-01 2.3402577638626099e-01</leafValues></_>
        <_>
          <internalNodes>
            0 -1 54 -83631998 -509592448 1615424646 1791427161
            -2142701562 640258132 340104474 1129824907</internalNodes>
          <leafValues>
            -3.7200251221656799e-01 2.6842343807220459e-01</leafValues></_>
        <_>
          <internalNodes>
            0 -1 86 540937967 1383346175 -225509378 442688815
            -1427282097 -159908077 -1684210240 -1645439804</internalNodes>
          <leafValues>
            -3.6521095037460327e-01 2.8971359133720398e-01</leafValues></_>
        <_>
          <internalNodes>
            0 -1 77 -536423096 -880137435 85544014 1796291039 1518499900
            1034109361 310938911 -1614828341</internalNodes>
          <leafValues>
            -3.4836637973785400e-01 3.0515828728675842e-01</leafValues></_></weakClassifiers></_></stages>
  <features>
    <_>
      <rect>
        0 0 7 4</rect></_>
    <_>
      <rect>
        0 0 8 5</rect></_>
    <_>
      <rect>
        0 0 16 7</rect></_>
    <_>
      <rect>
        0 0 18 13</rect></_>
    <_>
      <rect>
        0 0 19 12</rect></_>
    <_>
      <rect>
        0 0 20 8</rect></_>
    <_>
      <rect>
        0 0 26 4</rect></_>
    <_>
      <rect>
        0 0 26 6</rect></_>
    <_>
      <rect>
        0 0 26 8</rect></_>
    <_>
      <rect>
        0 1 5 13</rect></_>
    <_>
      <rect>
        0 1 13 13</rect></_>
    <_>
      <rect>
        0 1 18 13</rect></_>
    <_>
      <rect>
        0 5 5 5</rect></_>
    <_>
      <rect>
        0 5 22 10</rect></_>
    <_>
      <rect>
        0 6 6 4</rect></_>
    <_>
      <rect>
        0 7 17 3</rect></_>
    <_>
      <rect>
        0 8 4 10</rect></_>
    <_>
      <rect>
        0 8 19 6</rect></_>
    <_>
      <rect>
        0 9 21 7</rect></_>
    <_>
      <rect>
        0 10 16 3</rect></_>
    <_>
      <rect>
        0 12 5 5</rect></_>
    <_>
      <rect>
        0 13 4 5</rect></_>
    <_>
      <rect>
        0 14 4 8</rect></_>
    <_>
      <rect>
        0 14 20 7</rect></_>
    <_>
      <rect>
        0 18 5 3</rect></_>
    <_>
      <rect>
        0 18 5 6</rect></_>
    <_>
      <rect>
        0 19 9 3</rect></_>
    <_>
      <rect>
        0 19 10 7</rect></_>
    <_>
      <rect>
        0 19 19 7</rect></_>
    <_>
      <rect>
        0 21 5 3</rect></_>
    <_>
      <rect>
        0 26 1 2</rect></_>
    <_>
      <rect>
        0 27 10 3</rect></_>
    <_>
      <rect>
        0 28 6 4</rect></_>
    <_>
      <rect>
        0 28 15 4</rect></_>
    <_>
      <rect>
        0 30 26 2</rect></_>
    <_>
      <rect>
        0 31 1 2</rect></_>
    <_>
      <rect>
        0 31 5 3</rect></_>
    <_>
      <rect>
        0 31 22 3</rect></_>
    <_>
      <rect>
        0 31 26 1</rect></_>
    <_>
      <rect>
        0 34 26 2</rect></_>
    <_>
      <rect>
        1 7 5 11</rect></_>
    <_>
      <rect>
        1 9 4 4</rect></_>
    <_>
      <rect>
        1 11 4 4</rect></_>
    <_>
      <rect>
        1 17 9 3</rect></_>
    <_>
      <rect>
        1 26 1 2</rect></_>
    <_>
      <rect>
        1 28 16 4</rect></_>
    <_>
      <rect>
        1 33 1 2</rect></_>
    <_>
      <rect>
        2 0 3 13</rect></_>
    <_>
      <rect>
        2 0 26 11</rect></_>
    <_>
      <rect>
        2 4 1 2</rect></_>
    <_>
      <rect>
        2 13 26 9</rect></_>
    <_>
      <rect>
        2 27 16 3</rect></_>
    <_>
      <rect>
        2 33 1 2</rect></_>
    <_>
      <rect>
        3 0 4 5</rect></_>
    <_>
      <rect>
        3 9 1 2</rect></_>
    <_>
      <rect>
        5 0 1 13</rect></_>
    <_>
      <rect>
        5 4 25 12</rect></_>
    <_>
      <rect>
        7 1 16 8</rect></_>
    <_>
      <rect>
        7 3 23 11</rect></_>
    <_>
      <rect>
        10 4 21 12</rect></_>
    <_>
      <rect>
        11 0 23 10</rect></_>
    <_>
      <rect>
        12 4 15 8</rect></_>
    <_>
      <rect>
        13 2 22 12</rect></_>
    <_>
      <rect>
        13 22 6 3</rect></_>
    <_>
      <rect>
        14 6 22 9</rect></_>
    <_>
      <rect>
        14 11 16 6</rect></_>
    <_>
      <rect>
        14 17 8 5</rect></_>
    <_>
      <rect>
        14 18 9 1</rect></_>
    <_>
      <rect>
        15 8 16 8</rect></_>
    <_>
      <rect>
        16 6 13 6</rect></_>
    <_>
      <rect>
        16 14 11 5</rect></_>
    <_>
      <rect>
        16 15 4 2</rect></_>
    <_>
      <rect>
        16 19 6 1</rect></_>
    <_>
      <rect>
        17 8 7 6</rect></_>
    <_>
      <rect>
        17 11 16 7</rect></_>
    <_>
      <rect>
        17 13 13 5</rect></_>
    <_>
      <rect>
        17 17 6 1</rect></_>
    <_>
      <rect>
        17 37 16 1</rect></_>
    <_>
      <rect>
        18 5 15 4</rect></_>
    <_>
      <rect>
        18 9 13 7</rect></_>
    <_>
      <rect>
        18 18 6 2</rect></_>
    <_>
      <rect>
        18 19 4 2</rect></_>
    <_>
      <rect>
        19 0 15 11</rect></_>
    <_>
      <rect>
        19 7 9 5</rect></_>
    <_>
      <rect>
        19 11 5 2</rect></_>
    <_>
      <rect>
        19 18 4 6</rect></_>
    <_>
      <rect>
        20 13 3 2</rect></_>
    <_>
      <rect>
        20 20 4 2</rect></_>
    <_>
      <rect>
        21 0 12 6</rect></_>
    <_>
      <rect>
        21 11 4 4</rect></_>
    <_>
      <rect>
        21 11 9 5</rect></_>
    <_>
      <rect>
        21 17 5 2</rect></_>
    <_>
      <rect>
        21 22 5 2</rect></_>
    <_>
      <rect>
        21 24 3 2</rect></_>
    <_>
      <rect>
        21 27 6 3</rect></_>
    <_>
      <rect>
        22 1 8 12</rect></_>
    <_>
      <rect>
        22 7 14 8</rect></_>
    <_>
      <rect>
        22 13 4 2</rect></_>
    <_>
      <rect>
        22 14 4 2</rect></_>
    <_>
      <rect>
        22 19 3 2</rect></_>
    <_>
      <rect>
        22 24 4 2</rect></_>
    <_>
      <rect>
        22 30 6 3</rect></_>
    <_>
      <rect>
        23 5 11 9</rect></_>
    <_>
      <rect>
        23 10 13 5</rect></_>
    <_>
      <rect>
        23 22 4 2</rect></_>
    <_>
      <rect>
        24 2 10 6</rect></_>
    <_>
      <rect>
        24 12 4 3</rect></_>
    <_>
      <rect>
        24 13 9 4</rect></_>
    <_>
      <rect>
        24 22 4 3</rect></_>
    <_>
      <rect>
        25 1 12 5</rect></_>
    <_>
      <rect>
        25 11 3 3</rect></_>
    <_>
      <rect>
        25 28 7 4</rect></_>
    <_>
      <rect>
        26 3 18 6</rect></_>
    <_>
      <rect>
        26 8 4 4</rect></_>
    <_>
      <rect>
        26 8 8 5</rect></_>
    <_>
      <rect>
        26 9 4 3</rect></_>
    <_>
      <rect>
        26 13 14 7</rect></_>
    <_>
      <rect>
        26 26 4 1</rect></_>
    <_>
      <rect>
        26 26 4 3</rect></_>
    <_>
      <rect>
        27 7 13 7</rect></_>
    <_>
      <rect>
        27 11 3 3</rect></_>
    <_>
      <rect>
        27 23 3 4</rect></_>
    <_>
      <rect>
        28 2 6 6</rect></_>
    <_>
      <rect>
        28 26 5 4</rect></_>
    <_>
      <rect>
        28 28 3 2</rect></_>
    <_>
      <rect>
        29 0 17 13</rect></_>
    <_>
      <rect>
        29 2 10 6</rect></_>
    <_>
      <rect>
        30 4 6 6</rect></_>
    <_>
      <rect>
        30 24 3 2</rect></_>
    <_>
      <rect>
        30 27 5 4</rect></_>
    <_>
      <rect>
        31 0 7 5</rect></_>
    <_>
      <rect>
        31 5 7 6</rect></_>
    <_>
      <rect>
        31 7 5 5</rect></_>
    <_>
      <rect>
        31 11 3 3</rect></_>
    <_>
      <rect>
        31 12 4 5</rect></_>
    <_>
      <rect>
        31 13 12 4</rect></_>
    <_>
      <rect>
        31 25 5 4</rect></_>
    <_>
      <rect>
        32 9 8 5</rect></_>
    <_>
      <rect>
        32 14 6 1</rect></_>
    <_>
      <rect>
        32 15 11 6</rect></_>
    <_>
      <rect>
        32 19 4 5</rect></_>
    <_>
      <rect>
        32 24 2 2</rect></_>
    <_>
      <rect>
        33 2 6 7</rect></_>
    <_>
      <rect>
        33 11 2 2</rect></_>
    <_>
      <rect>
        33 19 6 6</rect></_>
    <_>
      <rect>
        33 22 3 3</rect></_>
    <_>
      <rect>
        33 25 2 2</rect></_>
    <_>
      <rect>
        34 6 5 4</rect></_>
    <_>
      <rect>
        34 8 5 5</rect></_>
    <_>
      <rect>
        34 9 4 3</rect></_>
    <_>
      <rect>
        34 11 2 2</rect></_>
    <_>
      <rect>
        34 11 3 3</rect></_>
    <_>
      <rect>
        34 11 4 5</rect></_>
    <_>
      <rect>
        34 15 4 4</rect></_>
    <_>
      <rect>
        34 17 4 3</rect></_>
    <_>
      <rect>
        34 22 4 5</rect></_>
    <_>
      <rect>
        34 27 3 2</rect></_>
    <_>
      <rect>
        35 6 7 5</rect></_>
    <_>
      <rect>
        35 10 4 4</rect></_>
    <_>
      <rect>
        35 10 5 5</rect></_>
    <_>
      <rect>
        35 11 2 3</rect></_>
    <_>
      <rect>
        35 17 4 4</rect></_>
    <_>
      <rect>
        35 20 3 3</rect></_>
    <_>
      <rect>
        35 22 15 5</rect></_>
    <_>
      <rect>
        35 24 3 2</rect></_>
    <_>
      <rect>
        35 25 2 2</rect></_>
    <_>
      <rect>
        36 6 5 6</rect></_>
    <_>
      <rect>
        36 16 4 3</rect></_>
    <_>
      <rect>
        36 22 3 3</rect></_>
    <_>
      <rect>
        37 5 9 6</rect></_>
    <_>
      <rect>
        37 10 3 3</rect></_>
    <_>
      <rect>
        37 21 3 3</rect></_>
    <_>
      <rect>
        38 0 14 13</rect></_>
    <_>
      <rect>
        38 4 14 12</rect></_>
    <_>
      <rect>
        38 11 3 3</rect></_>
    <_>
      <rect>
        38 20 3 3</rect></_>
    <_>
      <rect>
        38 20 14 5</rect></_>
    <_>
      <rect>
        38 23 3 3</rect></_>
    <_>
      <rect>
        39 12 3 3</rect></_>
    <_>
      <rect>
        39 17 3 3</rect></_>
    <_>
      <rect>
        40 10 4 5</rect></_>
    <_>
      <rect>
        40 10 7 4</rect></_>
    <_>
      <rect>
        40 16 3 3</rect></_>
    <_>
      <rect>
        40 24 3 4</rect></_>
    <_>
      <rect>
        41 6 5 5</rect></_>
    <_>
      <rect>
        41 6 13 11</rect></_>
    <_>
      <rect>
        41 19 6 7</rect></_>
    <_>
      <rect>
        42 8 8 4</rect></_>
    <_>
      <rect>
        42 9 7 3</rect></_>
    <_>
      <rect>
        42 10 3 3</rect></_>
    <_>
      <rect>
        42 11 5 6</rect></_>
    <_>
      <rect>
        42 13 2 2</rect></_>
    <_>
      <rect>
        42 19 7 5</rect></_>
    <_>
      <rect>
        42 23 2 3</rect></_>
    <_>
      <rect>
        43 26 7 4</rect></_>
    <_>
      <rect>
        44 11 3 5</rect></_>
    <_>
      <rect>
        44 12 2 3</rect></_>
    <_>
      <rect>
        44 19 12 3</rect></_>
    <_>
      <rect>
        44 20 7 2</rect></_>
    <_>
      <rect>
        45 11 5 4</rect></_>
    <_>
      <rect>
        45 17 5 1</rect></_>
    <_>
      <rect>
        45 20 6 1</rect></_>
    <_>
      <rect>
        47 6 7 6</rect></_>
    <_>
      <rect>
        47 9 11 7</rect></_>
    <_>
      <rect>
        47 16 11 3</rect></_>
    <_>
      <rect>
        47 19 7 2</rect></_>
    <_>
      <rect>
        47 22 6 4</rect></_>
    <_>
      <rect>
        48 13 5 3</rect></_>
    <_>
      <rect>
        48 23 4 1</rect></_>
    <_>
      <rect>
        49 16 3 2</rect></_>
    <_>
      <rect>
        49 22 5 2</rect></_>
    <_>
      <rect>
        50 10 6 5</rect></_>
    <_>
      <rect>
        50 16 3 1</rect></_>
    <_>
      <rect>
        50 18 4 1</rect></_>
    <_>
      <rect>
        50 19 5 1</rect></_>
    <_>
      <rect>
        50 21 5 1</rect></_>
    <_>
      <rect>
        51 18 5 1</rect></_>
    <_>
      <rect>
        51 20 4 2</rect></_>
    <_>
      <rect>
        52 23 3 3</rect></_>
    <_>
      <rect>
        56 20 8 3</rect></_>
    <_>
      <rect>
        59 13 7 4</rect></_>
    <_>
      <rect>
        62 1 6 5</rect></_>
    <_>
      <rect>
        62 2 6 5</rect></_>
    <_>
      <rect>
        64 7 5 4</rect></_>
    <_>
      <rect>
        64 21 5 5</rect></_>
    <_>
      <rect>
        65 1 5 11</rect></_>
    <_>
      <rect>
        65 4 5 12</rect></_>
    <_>
      <rect>
        65 8 5 4</rect></_>
    <_>
      <rect>
        65 10 5 10</rect></_>
    <_>
      <rect>
        65 12 5 3</rect></_>
    <_>
      <rect>
        68 13 4 4</rect></_>
    <_>
      <rect>
        68 16 4 4</rect></_>
    <_>
      <rect>
        68 16 4 5</rect></_>
    <_>
      <rect>
        72 0 1 1</rect></_>
    <_>
      <rect>
        72 33 2 1</rect></_>
    <_>
      <rect>
        72 35 1 1</rect></_>
    <_>
      <rect>
        72 37 1 1</rect></_>
    <_>
      <rect>
        73 9 1 1</rect></_>
    <_>
      <rect>
        74 3 1 1</rect></_>
    <_>
      <rect>
        74 8 1 1</rect></_>
    <_>
      <rect>
        74 24 1 1</rect></_>
    <_>
      <rect>
        74 28 1 1</rect></_>
    <_>
      <rect>
        74 31 1 1</rect></_>
    <_>
      <rect>
        74 34 2 1</rect></_>
    <_>
      <rect>
        74 36 1 1</rect></_>
    <_>
      <rect>
        74 37 1 1</rect></_>
    <_>
      <rect>
        75 12 1 1</rect></_>
    <_>
      <rect>
        75 18 1 1</rect></_>
    <_>
      <rect>
        75 24 1 1</rect></_>
    <_>
      <rect>
        75 25 1 1</rect></_>
    <_>
      <rect>
        75 31 1 3</rect></_>
    <_>
      <rect>
        75 35 1 1</rect></_>
    <_>
      <rect>
        75 37 1 1</rect></_>
    <_>
      <rect>
        76 5 1 1</rect></_>
    <_>
      <rect>
        76 6 1 1</rect></_>
    <_>
      <rect>
        76 8 1 1</rect></_>
    <_>
      <rect>
        76 26 1 1</rect></_>
    <_>
      <rect>
        76 31 1 1</rect></_>
    <_>
      <rect>
        76 35 1 1</rect></_>
    <_>
      <rect>
        76 36 1 1</rect></_>
    <_>
      <rect>
        77 4 1 1</rect></_>
    <_>
      <rect>
        77 7 1 1</rect></_>
    <_>
      <rect>
        77 9 1 1</rect></_>
    <_>
      <rect>
        77 11 1 1</rect></_>
    <_>
      <rect>
        77 14 1 1</rect></_>
    <_>
      <rect>
        77 17 1 1</rect></_>
    <_>
      <rect>
        77 21 1 1</rect></_>
    <_>
      <rect>
        77 23 1 1</rect></_>
    <_>
      <rect>
        77 25 1 1</rect></_>
    <_>
      <rect>
        77 27 1 1</rect></_>
    <_>
      <rect>
        77 28 1 1</rect></_>
    <_>
      <rect>
        77 29 1 1</rect></_>
    <_>
      <rect>
        77 30 1 3</rect></_>
    <_>
      <rect>
        77 33 1 1</rect></_></features></cascade>
</opencv_storage>
